1.5469131198027986
0.4017937718077894
0.16190805562311095
-1.8634927033644908
-0.26181119229869587
-0.24599979377619727
-0.06746851428087394
-0.5721593878711513
0.2070424883495417
-0.448612831587067
-1.3138647533626822
0.9173484549898123
0.8834795503502905
1.7029433964591212
0.0024023475112186325
-0.4129560528953444
-0.5615230080661336
-1.5464773155829683
1.0411083053166978
-1.1363221678318522
-1.1850465270201729
-0.1950052963984601
1.4224476316846044
0.24362835596482119
-1.0237851399264681
-0.7129932001120494
0.6232089851728915
-0.1605133631869239
-0.76883635031923
-0.23003072227793905
0.8856724248153496
1.7781542278960567
-1.244123328955937
-0.6264169111883692
-0.8037660945765764
-2.4190831731786697
-0.9237920216957886
-1.0238757608428377
1.1947069367629473
-0.1319142328009009
-1.6232854458352473
0.7104448926718743
-0.35627075944674486
-1.7431410369534588
-0.5966496416841992
-0.5885943796882429
-0.8738822977622994
0.02971381536101662
-2.248257767576606
-0.2677618648460562
0.715624606998895
0.7913292188718242
1.0397092965941914
0.8091792466710666
1.360817160585343
-1.118300684400365
1.0583691772342072
-1.8608895289421137
-0.6028851040072183
-1.9144720434058142
1.1497371857561505
1.3300866714747361
-0.1974146791582499
1.729359106547539
-0.6747275103117134
0.15061686536502228
0.15294570276248168
-1.0641952739365244
0.454483581616559
1.6161372438812622
-1.0249308746080865
0.864980666555289
-0.15450685189928748
1.7229768890144657
0.48378834760053036
0.6762163998630621
0.6431632805957185
0.2490867067258341
-1.395763502640675
1.5598312764540585
-1.3706690125520165
0.2385631924059012
0.6140770877540938
-0.8379122727022941
0.14506321410352788
1.0483659404124495
-0.024104470071230052
-0.8886574178529492
-2.915737751792712
-0.9718405025726093
-0.5910787384858753
-0.516417367788474
-0.9599961802272166
0.37729523411320043
-0.5747084204927051
-0.10945433388060835
0.679071599825507
-0.8554371686598813
-0.30020607451955067
2.1581493420569187
0.5054398705930563
-1.2935366319217843
-0.08723043354812507
0.45667916877351633
1.1846090933990105
0.2911662342664978
-0.46745155252343906
-0.5435529920723542
0.7685541639027305
0.2363354619174931
-0.4680370508279378
-0.20060842363227607
-0.40813424382605923
0.6417269931111939
-0.8310587408832021
0.5473469284872424
0.8900062129990259
0.42023610043497583
-0.6577475416847328
1.315636042984077
-0.6955016415463573
0.3959732573454618
-0.7450883758211263
-1.744110250641094
0.2257502662458201
0.28703516469482443
-0.07744096055993933
0.27606849724284316
-0.6484108883064816
-0.7374648374587585
-0.16809009862191446
1.6346161577099498
0.6908425145719364
-0.5199917540975635
0.5602602852056998
-0.4783646604432103
-0.45726078713830676
0.7578704039447907
-0.5252646451556335
-1.6756346341845954
-0.9064947005743282
0.08841520620200595
0.12800782111610085
1.2741575057041499
-0.7160257975174191
0.776722269638655
0.42596674984978417
-0.14901377221550174
0.9045193441872377
0.4921189029137968
-0.8623084869368738
0.5620189606461767
-1.2209019198961333
-0.05481689678860545
0.020528655279642687
0.37319377896680905
-0.7254334803985123
0.4747880881411047
-0.1951532815600065
0.9747825541069121
-0.7959146932233903
0.17805671502718598
-0.1668085415987501
-1.2980466376694824
2.6006828619064803
-0.018725824603683192
-1.4866580709207609
1.412437521601696
-1.0705854991525032
0.45200752266848476
0.6852708792373061
-0.6484320227760582
-0.43089005538560166
-0.540270263790554
-0.12936100975105408
-1.6224611704696181
-1.2356366241061225
-0.1407864421846237
0.9555084413978279
0.631744177429087
1.8057191522360574
0.6940522720694241
-0.511128992552914
-0.12284340561303929
-2.030393553778298
-0.9607751102139338
-1.0203592788039855
0.2705934249706648
0.6478297974098579
-0.5603734188841619
-0.5885016196794289
-1.5465558228110778
-0.12776205788585943
0.2481680271468232
0.4457809586531427
-0.782709043447464
1.9708360781172534
1.1053527207749034
-0.09523759870062422
-0.52718777933396
-0.32158469309218346
0.15113037165299167
-0.018627715556959044
0.6977157364090394
0.8374467944928707
1.0513679572734944
1.2676508950964587
-0.1102291554019236
0.32513514656229636
-0.3871271811779628
-0.587220312328312
1.8102296386769676
-0.459846150218099
2.049313041093777
-0.34903539298253017
0.2528250912215497
1.0139241479243435
0.02392202180891483
0.3669547471803656
-0.24138479980935626
-0.47552485781324766
-0.16577702313143794
-0.6497174207470244
1.4715087605217507
-0.16769860276646403
1.70644263551801
-2.6851086777996254
0.018420794714651353
0.561951672422086
-0.29382123783761
1.0056960533210886
0.6228601676021273
-0.2746001203219027
0.4350092581717443
2.7926131206866067
0.25199512668322666
0.2995023312069633
-0.43999131122796514
0.1334970410228064
-1.2892611938117313
-0.1982902566629641
2.4132066595507893
0.8597725004626614
0.6019530147241892
1.2877680028157605
2.056354785967459
0.5935881147911207
2.1504000571383
1.1377433398495513
0.1665195100182666
1.9131942227530785
-2.359214738012778
-0.6045326299495375
0.24815968490597254
-0.889792713900967
-0.24627126598088575
-0.6501917390488737
-0.5308637157384635
2.4529146503230295
0.608027594253682
-0.17421031977498982
1.2972991371714193
-0.21742927224054892
0.8509258692681612
0.34349570818761044
1.6413705423707006
-1.4470412714427878
0.8380612062885533
0.07434652226340532
-1.1146153413842266
1.0445776968690246
-0.8962313301081373
1.595455759744232
0.4633305862811757
0.6954839830855626
0.03776381316236955
0.6233482855202943
-1.8656511724848381
0.0773921798130153
-0.6282508068041004
0.24199214365870444
0.15751905472514519
0.6145663597792628
-0.8376314467621395
1.8458729434991623
2.281483490903043
-0.244609755393956
0.06431794061688725
0.2719492941495233
1.3069678207220463
1.8847897419187543
-1.205802790808515
-0.6151085644145126
-1.06215612342783
-1.1127811504388292
-1.639296247316983
0.35969178651007505
-1.1590364650212066
1.4689436701224907
0.9083187163404699
-1.0297095253132769
-1.030208617706558
-0.6123844176841136
0.9160184947459304
-0.8496073597130113
-1.4935496677890385
-0.049423885255338834
0.6502379810100317
-0.6572574850828106
1.5698441383535306
0.30277411529275566
0.6815440565454353
-0.8555327209832657
-0.039729838595089065
-0.15651881422808306
-2.2722441146208565
0.2877259356462506
-1.7948070353223222
-0.02878564561215825
-1.4739428268182388
1.7391687168725074
0.3177268931198157
0.9125661282235278
0.8529464894152725
-1.3244886972948617
-2.2817923149605375
-0.3295781528443636
1.0184224747861692
0.09103451157733451
0.7854322470770906
0.9896933198198323
-1.4923971010206298
0.2876837237184459
1.9144063644442166
-0.5705322951029477
-2.029072125738085
-0.23190455319760503
-0.46466872114890073
0.4183810226186713
-0.8924063346634243
0.09071677302864654
-2.2174176110366517
0.8539633716563882
1.643745113754333
1.1767622453238258
-1.5152156584277958
0.3191961758756039
-2.9839702048819636
0.2831859217804899
-0.0643601718892202
-0.9957942444575173
0.3437945184982995
0.13801465500803695
1.1524746667565964
0.1273085242395576
0.23502701286442304
-1.945072262173743
-1.159722950990108
-0.4758993869095291
0.29684453077017414
-0.006298778957334841
1.3639652659151278
-0.8701591900376577
-0.23963207346547077
0.2550806947827812
-0.2314974096267061
0.49558039517689045
-0.570562824004872
1.306166919483016
-0.31959014093289195
1.1082685770894307
-0.030303367201114286
1.5230960700515195
-1.398116010837694
0.5167975541033187
-0.3895607561144235
0.1350539168809261
1.1479103160191553
-1.139096798811448
-1.3220297347269756
-0.9983668786197869
0.4083578118285498
-1.8868369253608048
-0.02499628964843158
-1.286229327627375
-1.143721826337127
-0.4644010214993109
0.47629950383392256
-0.6264145034858771
-0.5046695549877881
-0.10235132129242767
-0.28608273135836587
-2.6765213650405153
-0.4115174104480223
0.14169707862159944
1.0068860602201812
2.0528327107549407
0.6366257763611506
-0.004195778026354215
-0.9647634673094592
-0.07502293974935587
0.8059731192283921
1.2125252303046352
-0.8801471752732629
0.20504436817595792
0.6914234074437727
1.8011943661201604
-0.07846762842500525
-0.5297785307416036
-0.662166908654991
-0.3710773936523196
-0.6663033891651149
0.9489248092048613
1.0022338332244778
0.8215786580101527
1.1018075858357832
-0.45065943428613786
0.3352518425029497
-0.4621349339784224
0.11600296264141464
1.2607517187246717
-0.03167144472906169
-1.8648057976546633
-0.3298597741755314
-0.7128497956872801
-1.5089171197924285
-0.7903656891853947
0.9606248032998537
1.862913345970092
-0.48900604176617724
1.0025358367632835
1.1782221014724181
-1.15979226787136
-0.039362704747178304
-0.04446017087362048
0.17238567883142228
-1.59375081038187
-0.3491422391255915
1.0578212070622872
1.2622031991734701
1.8141442281051723
-0.33750904551725175
1.6999636534036426
0.6659051116898648
-1.3592011677241762
0.7616092820538556
-0.35228003425087745
0.5190762641226175
-0.1025239425467527
1.2082386408676518
0.25656015941980786
-0.28250501810129425
1.059674842439785
0.25622177642276045
-0.41295640078267243
1.0191973687039397
-0.4083452424507089
-0.6371348630610886
-0.5395746120322971
-1.465472088098516
-0.553207169477704
1.8717834796559578
-0.9082839352408411
0.008418903741827322
-1.1081833495386504
-0.6113531517758014
1.4088579971783464
0.9660708813017953
-0.610250350242069
0.006220116083705234
-0.8260039618975794
-0.7842053522580003
-0.9148221980385752
-0.8971397769002416
0.3259492731181739
0.5933077504420018
0.8584486817454072
-0.16943685686341148
-1.3580452003570913
-0.06711047163915182
-0.9242937418378228
0.44441328778454475
0.5258113205934323
0.8602096362115227
-0.34836831647284794
-1.811019173528643
0.8993336843937328
1.0290433095076748
-1.483316608445911
0.1379160442317949
1.249949580206243
-1.0757235496136395
1.5984313896718267
-0.3490324565207251
-1.075390110352028
1.5043605204755044
0.28366619626022327
-0.6531381615693331
1.0112478673345775
-1.9557671283697031
1.4949182010612796
-0.8162500603504509
0.28598427306966
-0.3986161702554536
0.4362321147585957
0.8832240829119709
-0.8238861049750625
0.7133229312418752
-0.2940332476891754
-0.6878595098340832
-0.22404360720612895
-1.004608605388088
-0.7956675731322599
0.9014686610588375
-0.1508230423766576
1.1052395563743875
0.43175699432843584
-1.0259682963524803
-1.897871427616133
-0.6872418180886369
0.2641264893763635
0.008812919913161719
-0.8300956206129543
1.0128123002564433
-1.74572350430449
-1.2586465871859873
0.1272951023462422
2.289417509115315
0.41393412821599496
-1.0052396596473858
0.5926571399940502
0.683396574255898
0.9378569275311085
-0.40986453387718347
-0.7997264392764736
0.11821727935095082
0.4152748790847775
1.5744039609562281
2.098993405997856
-0.7330699337683965
-0.5229716269989917
-0.06357308059048102
-0.24977210659449586
0.4857901771702392
0.4857372050946592
0.2578969838252818
1.3440712910307915
-0.15851092441970857
-1.050807939156347
-1.5606012270773397
-1.0281398746516828
-1.0442579211637901
-1.8834238307500453
0.6523202674363725
0.22328444265988293
-0.42279272744280805
-0.8898889790474425
-1.5809453763125743
-0.9197195967730546
1.8389227243601534
-2.2107916395785647
0.13250614695688984
0.6582966990839942
0.10901218475665021
-0.3168049208137305
0.8311509688306249
-1.103328259880154
0.3565925379089315
1.453730007415494
-1.0413743865011504
-0.8198334064279026
0.12359122068554265
0.8617999324022004
1.3847522457756396
0.6806269535179037
-0.6455462299149145
-1.1144127120676823
0.46793774742890004
0.5631697228830101
-1.100552311194593
0.15059777375092512
-0.03225820241104284
0.5998804813821683
-0.990562703605906
0.5115151899824159
-1.1692757971880354
-0.4189296169888152
-0.11381958835269942
1.4650832502868432
3.2201557377745904
0.24690305045286112
0.4454192383004909
0.7842131306780612
-1.3616562231453546
0.849222188286268
-1.241739860368897
1.5925984655495136
1.3187796100879883
0.7382942869244354
-0.8066985141854794
1.6212096098699253
0.25968837470163386
0.11024354242385256
0.5795433466949741
-1.7123465710858863
0.428499422515909
0.9961081529079141
0.33900098162524633
0.1452587454793304
-0.9536581161274191
0.6435548290021997
0.2004689470726399
0.009063786618308697
-0.5632049187841904
0.8561711100483981
1.247184369690463
0.38814617419599784
0.8967490724098993
1.326023297341772
1.5881611452455604
0.22565015045214054
-0.21332802096531991
-0.4149458684932988
0.013747012349088417
0.5519664082287561
