0.018978724040542048
0.992276540083688
0.8901312251248371
-0.41382713969490276
2.0681656707497984
0.5775638943902491
-0.9203843821888511
1.0456465465032176
-0.9835880234673304
0.5509212601012474
-1.3673659723671887
0.8739207047196564
-0.7341939672068954
1.4168783507053364
0.7414695985359611
0.48325068716170805
0.04804752498557653
1.0612607216965282
-1.7554243666921567
0.3843649388733489
0.2867577391578612
0.5948421649636436
0.8455136642360952
3.2462250394659455
0.1160354363709706
0.6111969013782325
0.2820284463456836
1.3753407575634666
-2.0353795315086103
1.4950401916253866
-0.5605692674638446
-2.385667218524453
-1.0570394020457763
-0.14648188181064775
0.15505642192388372
-0.20279361428875245
0.6615246377729981
-0.08699806305732403
-0.06370463569976904
-2.158357445127192
0.43035259229498
0.9797414934563901
-0.44109234909951056
-1.8719437945103827
-1.3433411342749675
1.626862681295129
-0.6394688543669504
-0.6998970819645913
-0.8703091292599701
0.6781822052570231
-0.4115311789536568
-0.9488348630383757
-1.342259041883857
-0.10275331699538988
1.1506650789723445
-0.1446116383909112
0.9325071393780371
0.11597169295007453
0.03009328963773121
0.3910799649830387
0.2073762575533696
0.9971647734617535
0.6609855701971381
-0.6715524884715235
0.23268735529959
-0.021941877472691707
0.3385659522612987
0.1993698455700383
0.3653685083819881
-1.5124992164416577
0.43863836774670667
1.2816288749385722
-1.2098156978802383
1.8246886311642563
0.2970727188122551
-0.37097211652219
-1.878397005075584
0.9529417928818997
-0.9860274395972569
-0.9152846074858524
0.4359796680402215
-0.8064926059015732
-0.998531315108308
-1.247913620204447
-0.1347270293196095
0.020136908131493773
0.24658225078045695
0.41359307866861417
-0.3491095103819193
0.15994421143725404
-0.6651630336715865
1.5891639232983716
0.1767629958450904
-1.960540453051814
-1.1840850977620747
1.5382085255964777
-1.3836959120134709
-0.4782676835839145
0.1900165874842689
-1.0998287465092018
1.0930943545322669
1.6664688960666008
-0.8218631317287578
1.1292956558577951
-0.9442430025564896
-0.9725891083679887
0.2456850884846584
0.24844402675218874
-0.6157230881748347
0.7359368984813611
-1.4559386823633647
-0.8462705973704603
-1.086817327775059
0.78902798736342
0.8164207072309962
0.6847019632591955
-1.2711730412172033
0.13276813231129195
0.44164985555175534
-1.61663037374331
-0.8216931030467899
0.6458623425689751
0.744841882215766
0.23075274417671662
0.5420756749135335
0.0783699624985343
0.1045446111961031
-0.134517604313895
-0.8714322291978471
-0.3549525266491285
-0.40337706687312036
2.0554282373677775
0.23802518305047474
-0.03361041772861479
-0.2332005508472325
-0.24874781438084329
-0.4370004231849491
0.5651894761144355
-0.029742669211840884
0.8192763764343876
-0.7527125859061223
-0.02276230693926168
0.858011055762238
-1.1638874322318828
0.025777204416007733
0.24664920156299205
-0.33474727166395074
-0.5037274807153043
-1.9250160902245326
1.1488212626346719
-1.0762719214430156
-1.2475462835397921
0.5515734172386269
-1.841768404701779
0.5764228907223575
0.4338696226526687
0.6283551291723148
-0.17791029331929448
-1.273664366811693
-1.7986614791203548
0.7578022192796826
-0.45171474924239596
-0.5354235094347302
1.3207073002242617
-0.6511238021358617
-0.45849011297453013
-0.4479107806659104
-0.1233655857074451
-1.0593954086955644
-0.5787698173174652
1.3219566069087068
0.7315619590465512
-2.974439904744588
-1.9489227711518202
0.33197852828663654
-0.14296304786609842
-0.22262832622936418
0.8507061188823358
-1.7908937159226614
1.2593127036295324
0.3057617391416163
0.43834680826793404
0.21778712406517928
0.7140042081656586
-0.1703884538846104
-0.618721150904348
0.6040402298633671
-0.004454034980335173
-1.3944280736951036
1.2527363902893718
1.0258377130338707
1.4384267075738804
0.08560114715862069
0.28322989547699606
-0.355501087005652
-0.9216459604743414
0.00395192536039839
0.1218157053821542
-0.28653905382657285
1.8287111767569213
-1.5433086500911937
-0.8153447039746088
-0.6897157277044105
1.2742323320002433
-0.16754083054240856
-0.32467783699344743
-0.911162992276943
-0.7644953098836529
-1.3007005332835169
0.9303635884739216
0.8399718366949646
0.8270505816711301
-0.703255244307557
2.5791038043286005
-0.9813120968490128
-2.0078990387031004
-0.20951785018426633
0.15213867379892435
0.7563406398236351
-0.9455141548846621
0.5923577502427936
1.7078523936481933
-0.8922311251068016
-0.7477948239452495
-1.7028603791906167
0.2504135321708713
0.8959029954312231
0.7155022417695273
0.8269348263706644
1.3301531233089274
0.18826190229761589
0.8797285298750619
-0.8782059618619682
-0.5790119886134134
0.04706934835311194
-0.540370193751734
0.6221390035489381
1.3014500096922563
0.5980682099626649
-0.645940996823234
-0.6424978613829085
1.4550931026908875
-0.8085519909745891
0.19489962929103544
-0.1915874291039703
-0.06389122068122398
1.1195322215362558
-0.46483968438970746
-1.5003685408850806
1.450251881298685
0.16186492482183248
0.3736720812994528
0.21821002240690326
0.785974700983063
1.3126239105080892
1.0010977790535978
-0.11473120218647116
-0.41915332763267926
0.11570693112311861
0.4651941964569893
0.18575949960185767
-0.654343532204902
-1.9608870425481375
0.2767910188042449
0.8071886271486547
0.8043939215905717
1.2862454179306357
0.8725755130673879
-0.47718594915349566
0.8472101943799139
-0.009691850356531542
1.2862995719344383
0.2035074005824551
0.32023670547444216
0.2283065799343708
0.033541939928056964
-1.3554540999675513
-0.06236037414078039
-2.274985335889869
0.35599842737309983
1.1769100227956975
1.9272782841238025
0.40114197154822623
-0.5967621547344925
-1.988813677412742
1.9918016346037855
-1.445733689613135
0.6278118595540444
-2.073802265248719
-0.08210999163077479
0.6581352857547177
0.6394740310963113
-0.0694017354246471
-0.7778015941915789
-0.8066541759067801
0.9332358727039964
0.4382911960987635
-0.17337517186884904
-0.008884091106500144
-0.9261744840304951
